Version 8.5.0
Id 
Min label:0
Max label:0
bits:4
lda:2
0 ngram:
0 skip:
options: --hash_seed 0 --link identity --lda 2 --lda_alpha 0.1 --lda_rho 0.1
Checksum: 374956557
0 188.016 26.6735 
1 37.9476 19.9798 
2 27.6429 15.3897 
3 21.9143 36.9997 
4 17.6368 25.671 
5 54.9624 19.3346 
6 34.2351 14.9141 
7 25.2594 35.0481 
8 19.9608 24.7322 
9 16.3315 18.7165 
10 44.348 67.1692 
11 30.4022 33.3243 
12 23.5572 23.8495 
13 18.6066 18.1232 
14 15.0173 56.2922 
15 38.357 31.7809 
